digraph Tree {
node [shape=box, style="filled, rounded", color="black", fontname="helvetica"] ;
edge [fontname="helvetica"] ;
0 [label=<flipper_length_mm &le; 210.5<br/>squared_error = 644479.66<br/>samples = 233<br/>value = 4230.901>, fillcolor="#f7dac4"] ;
1 [label=<squared_error = 211257.157<br/>samples = 164<br/>value = 3803.963>, fillcolor="#ffffff"] ;
0 -> 1 [labeldistance=2.5, labelangle=45, headlabel="True"] ;
2 [label=<squared_error = 211212.98<br/>samples = 69<br/>value = 5245.652>, fillcolor="#e58139"] ;
0 -> 2 [labeldistance=2.5, labelangle=-45, headlabel="False"] ;
}
